0.04072298,0.22711629,-0.23959994,-0.32745844,-0.50818264,1.0003586,1.3124835,-0.43646875,-0.70751923,0.8135483,0.7436721,0.97715914,-1.4994516,0.15757124,0.3102719,1.4315245,0.65793794,0.41386554,-0.23233762,0.52859306,-1.2623428,1.0799825,0.52472675,1.4146078,0.35977122,0.41845664,-0.59916866,0.9152061,-0.13548957,-0.489252,0.23220776,-0.42185524,-1.076197,-0.28476265,0.520024,0.09111456,-0.4517694,0.35177916,-0.14385812,-0.71603495,1.7856451,1.0752546,-0.3669649,-0.089548685,0.66666436,1.3335867,0.9496305,1.0982875,0.07524049,-0.14909604,1.0172824,-0.007074219,-0.6341108,1.0796779,-0.53627795,0.677763,1.088067,0.53707784,0.9817953,0.32159665,0.9595581,1.6362554,-0.41616228,0.15452302,-0.5255175,0.51887345,0.47861236,0.47419664,-0.5772059,0.7743007,0.47404662,0.22439924,-1.120763,0.003102974,-0.22690925,-0.36882287,0.8919334,0.30076444,0.04762233,0.97693956,0.844414,1.359664,-0.16447471,1.0042043,1.4480543,0.82686263,0.8344648,-0.18360826,1.5802549,-0.096785605,-0.17199409,0.32922414,0.30132025,-0.3387604,0.18117906,-0.59649414,0.91678935,0.31341502,0.4297943,1.7478441